Language model created by QuickLM on Sun May  2 09:37:49 EDT 2021
Copyright (c) 1996-2010 Carnegie Mellon University and Alexander I. Rudnicky

The model is in standard ARPA format, designed by Doug Paul while he was at MITRE.

The code that was used to produce this language model is available in Open Source.
Please visit http://www.speech.cs.cmu.edu/tools/ for more information

The (fixed) discount mass is 0.5. The backoffs are computed using the ratio method.
This model based on a corpus of 28 sentences and 30 words

\data\
ngram 1=30
ngram 2=56
ngram 3=28

\1-grams:
-0.7782 </s> -0.3010
-0.7782 <s> -0.2218
-2.2253 BROWSER -0.2218
-2.2253 CALCULATOR -0.2218
-2.2253 CALL -0.2218
-2.2253 CHANGE -0.2218
-2.2253 CLOSE -0.2218
-2.2253 CODE -0.2218
-2.2253 CORTANA -0.2218
-2.2253 DATE -0.2218
-2.2253 DISCORD -0.2218
-2.2253 DOWN -0.2218
-2.2253 EXPLORER -0.2218
-2.2253 FILE -0.2218
-2.2253 INBOX -0.2218
-2.2253 NOTEPAD -0.2218
-2.2253 OPEN -0.2218
-2.2253 PAINT -0.2218
-2.2253 POWERPOINT -0.2218
-2.2253 SCREENSHOT -0.2218
-2.2253 SLEEP -0.2218
-2.2253 START -0.2218
-2.2253 STUDIO -0.2218
-2.2253 TAB -0.2218
-2.2253 TASK -0.2218
-2.2253 TIME -0.2218
-2.2253 VISUAL -0.2218
-2.2253 WINDOW -0.2218
-2.2253 YOUTUBE -0.2218
-2.2253 ZOOM -0.2218

\2-grams:
-1.7482 <s> BROWSER 0.0000
-1.7482 <s> CALCULATOR 0.0000
-1.7482 <s> CALL 0.0000
-1.7482 <s> CHANGE 0.0000
-1.7482 <s> CLOSE 0.0000
-1.7482 <s> CODE 0.0000
-1.7482 <s> CORTANA 0.0000
-1.7482 <s> DATE 0.0000
-1.7482 <s> DISCORD 0.0000
-1.7482 <s> DOWN 0.0000
-1.7482 <s> EXPLORER 0.0000
-1.7482 <s> FILE 0.0000
-1.7482 <s> INBOX 0.0000
-1.7482 <s> NOTEPAD 0.0000
-1.7482 <s> OPEN 0.0000
-1.7482 <s> PAINT 0.0000
-1.7482 <s> POWERPOINT 0.0000
-1.7482 <s> SCREENSHOT 0.0000
-1.7482 <s> SLEEP 0.0000
-1.7482 <s> START 0.0000
-1.7482 <s> STUDIO 0.0000
-1.7482 <s> TAB 0.0000
-1.7482 <s> TASK 0.0000
-1.7482 <s> TIME 0.0000
-1.7482 <s> VISUAL 0.0000
-1.7482 <s> WINDOW 0.0000
-1.7482 <s> YOUTUBE 0.0000
-1.7482 <s> ZOOM 0.0000
-0.3010 BROWSER </s> -0.3010
-0.3010 CALCULATOR </s> -0.3010
-0.3010 CALL </s> -0.3010
-0.3010 CHANGE </s> -0.3010
-0.3010 CLOSE </s> -0.3010
-0.3010 CODE </s> -0.3010
-0.3010 CORTANA </s> -0.3010
-0.3010 DATE </s> -0.3010
-0.3010 DISCORD </s> -0.3010
-0.3010 DOWN </s> -0.3010
-0.3010 EXPLORER </s> -0.3010
-0.3010 FILE </s> -0.3010
-0.3010 INBOX </s> -0.3010
-0.3010 NOTEPAD </s> -0.3010
-0.3010 OPEN </s> -0.3010
-0.3010 PAINT </s> -0.3010
-0.3010 POWERPOINT </s> -0.3010
-0.3010 SCREENSHOT </s> -0.3010
-0.3010 SLEEP </s> -0.3010
-0.3010 START </s> -0.3010
-0.3010 STUDIO </s> -0.3010
-0.3010 TAB </s> -0.3010
-0.3010 TASK </s> -0.3010
-0.3010 TIME </s> -0.3010
-0.3010 VISUAL </s> -0.3010
-0.3010 WINDOW </s> -0.3010
-0.3010 YOUTUBE </s> -0.3010
-0.3010 ZOOM </s> -0.3010

\3-grams:
-0.3010 <s> BROWSER </s>
-0.3010 <s> CALCULATOR </s>
-0.3010 <s> CALL </s>
-0.3010 <s> CHANGE </s>
-0.3010 <s> CLOSE </s>
-0.3010 <s> CODE </s>
-0.3010 <s> CORTANA </s>
-0.3010 <s> DATE </s>
-0.3010 <s> DISCORD </s>
-0.3010 <s> DOWN </s>
-0.3010 <s> EXPLORER </s>
-0.3010 <s> FILE </s>
-0.3010 <s> INBOX </s>
-0.3010 <s> NOTEPAD </s>
-0.3010 <s> OPEN </s>
-0.3010 <s> PAINT </s>
-0.3010 <s> POWERPOINT </s>
-0.3010 <s> SCREENSHOT </s>
-0.3010 <s> SLEEP </s>
-0.3010 <s> START </s>
-0.3010 <s> STUDIO </s>
-0.3010 <s> TAB </s>
-0.3010 <s> TASK </s>
-0.3010 <s> TIME </s>
-0.3010 <s> VISUAL </s>
-0.3010 <s> WINDOW </s>
-0.3010 <s> YOUTUBE </s>
-0.3010 <s> ZOOM </s>

\end\
